{"learner":{"attributes":{"best_iteration":"49","best_ntree_limit":"50","scikit_learn":"{\"n_estimators\": 50, \"objective\": \"reg:squarederror\", \"max_depth\": 3, \"max_leaves\": null, \"max_bin\": null, \"grow_policy\": null, \"learning_rate\": 0.2, \"verbosity\": null, \"booster\": null, \"tree_method\": null, \"gamma\": null, \"min_child_weight\": null, \"max_delta_step\": null, \"subsample\": null, \"sampling_method\": null, \"colsample_bytree\": null, \"colsample_bylevel\": null, \"colsample_bynode\": null, \"reg_alpha\": null, \"reg_lambda\": null, \"scale_pos_weight\": null, \"base_score\": null, \"missing\": NaN, \"num_parallel_tree\": null, \"random_state\": null, \"n_jobs\": null, \"monotone_constraints\": null, \"interaction_constraints\": null, \"importance_type\": null, \"gpu_id\": null, \"validate_parameters\": null, \"predictor\": null, \"enable_categorical\": false, \"feature_types\": null, \"max_cat_to_onehot\": null, \"max_cat_threshold\": null, \"eval_metric\": null, \"early_stopping_rounds\": null, \"callbacks\": null, \"_estimator_type\": \"regressor\"}"},"feature_names":["age","sex","bmi","children","smoker","region"],"feature_types":["int","int","float","int","int","int"],"gradient_booster":{"model":{"gbtree_model_param":{"num_parallel_tree":"1","num_trees":"50","size_leaf_vector":"0"},"tree_info":[0,0,0,0,0,0,0,0,0,0,0,0,0,0,0,0,0,0,0,0,0,0,0,0,0,0,0,0,0,0,0,0,0,0,0,0,0,0,0,0,0,0,0,0,0,0,0,0,0,0],"trees":[{"base_weights":[1.32022E4,8.525684E3,3.149969E4,5.403989E3,1.2392991E4,2.1289604E4,4.111237E4,3.8124507E3,6.652862E3,1.0443774E4,1.3723327E4,1.8451037E4,2.4689273E4],"categories":[],"categories_nodes":[],"categories_segments":[],"categories_sizes":[],"default_left":[1,1,1,1,1,1,0,0,0,0,0,0,0],"id":0,"left_children":[1,3,5,7,9,11,-1,-1,-1,-1,-1,-1,-1],"loss_changes":[8.564223E10,9.603146E9,1.9146572E10,8.591309E8,7.824138E8,5.1912704E8,0E0,0E0,0E0,0E0,0E0,0E0,0E0],"parents":[2147483647,0,0,1,1,2,2,3,3,4,4,5,5],"right_children":[2,4,6,8,10,12,-1,-1,-1,-1,-1,-1,-1],"split_conditions":[5E-1,4.25E1,2.99725E1,2.65E1,5.15E1,4.1E1,8.222475E3,7.624902E2,1.3305724E3,2.088755E3,2.7446655E3,3.6902075E3,4.937855E3],"split_indices":[4,0,2,0,0,0,0,0,0,0,0,0,0],"split_type":[0,0,0,0,0,0,0,0,0,0,0,0,0],"sum_hessian":[1.003E3,8E2,2.03E2,4.44E2,3.56E2,1E2,1.03E2,1.97E2,2.47E2,1.48E2,2.08E2,5.8E1,4.2E1],"tree_param":{"num_deleted":"0","num_feature":"6","num_nodes":"13","size_leaf_vector":"0"}},{"base_weights":[1.0585442E4,6.8291943E3,2.5282352E4,4.3278945E3,9.927932E3,1.711711E4,3.296896E4,2.531164E3,5.1021763E3,9.098492E3,1.2515293E4,1.4823375E4,1.9866252E4,2.77648E4,3.54285E4],"categories":[],"categories_nodes":[],"categories_segments":[],"categories_sizes":[],"default_left":[1,1,1,1,1,1,1,0,0,0,0,0,0,0,0],"id":1,"left_children":[1,3,5,7,9,11,13,-1,-1,-1,-1,-1,-1,-1,-1],"loss_changes":[5.525342E10,6.1654794E9,1.2239323E10,6.0615834E8,6.522716E8,3.4240102E8,3.4751283E8,0E0,0E0,0E0,0E0,0E0,0E0,0E0,0E0],"parents":[2147483647,0,0,1,1,2,2,3,3,4,4,5,5,6,6],"right_children":[2,4,6,8,10,12,14,-1,-1,-1,-1,-1,-1,-1,-1],"split_conditions":[5E-1,4.25E1,2.99725E1,2.25E1,5.85E1,4.1E1,3.05E1,5.0623282E2,1.02043524E3,1.8196985E3,2.5030586E3,2.964675E3,3.9732505E3,5.5529604E3,7.0857E3],"split_indices":[4,0,2,0,0,0,0,0,0,0,0,0,0,0,0],"split_type":[0,0,0,0,0,0,0,0,0,0,0,0,0,0,0],"sum_hessian":[1.003E3,8E2,2.03E2,4.44E2,3.56E2,1E2,1.03E2,1.35E2,3.09E2,2.73E2,8.3E1,5.8E1,4.2E1,3.7E1,6.6E1],"tree_param":{"num_deleted":"0","num_feature":"6","num_nodes":"15","size_leaf_vector":"0"}},{"base_weights":[8.493679E3,5.470658E3,2.0321844E4,3.7519739E3,8.40592E3,1.3880161E4,2.6627447E4,2.6941313E3,5.108756E3,7.717998E3,1.0042033E4,1.2168595E4,1.5985403E4,2.3905324E4,2.9672398E4],"categories":[],"categories_nodes":[],"categories_segments":[],"categories_sizes":[],"default_left":[1,1,1,1,1,1,1,0,0,0,0,0,0,0,0],"id":2,"left_children":[1,3,5,7,9,11,13,-1,-1,-1,-1,-1,-1,-1,-1],"loss_changes":[3.5788644E10,4.0093327E9,7.916626E9,7.139144E8,2.5452544E8,1.7661542E8,1.3612646E8,0E0,0E0,0E0,0E0,0E0,0E0,0E0,0E0],"parents":[2147483647,0,0,1,1,2,2,3,3,4,4,5,5,6,6],"right_children":[2,4,6,8,10,12,14,-1,-1,-1,-1,-1,-1,-1,-1],"split_conditions":[5E-1,4.65E1,3.0205E1,3.25E1,5.85E1,4.1E1,4.15E1,5.388263E2,1.02175116E3,1.5435996E3,2.0084066E3,2.433719E3,3.1970808E3,4.781065E3,5.93448E3],"split_indices":[4,0,2,0,0,0,0,0,0,0,0,0,0,0,0],"split_type":[0,0,0,0,0,0,0,0,0,0,0,0,0,0,0],"sum_hessian":[1.003E3,8E2,2.03E2,5.06E2,2.94E2,1.02E2,1.01E2,2.86E2,2.2E2,2.11E2,8.3E1,6E1,4.2E1,5.8E1,4.3E1],"tree_param":{"num_deleted":"0","num_feature":"6","num_nodes":"15","size_leaf_vector":"0"}},{"base_weights":[6.8163164E3,4.382909E3,1.6337605E4,2.7566653E3,6.3977427E3,1.1035318E4,2.132985E4,1.6563474E3,3.6400266E3,5.2454575E3,7.188617E3,8.688324E3,1.2256419E4,1.7489746E4,2.2868352E4],"categories":[],"categories_nodes":[],"categories_segments":[],"categories_sizes":[],"default_left":[1,1,1,1,1,1,1,0,0,0,0,0,0,0,0],"id":3,"left_children":[1,3,5,7,9,11,13,-1,-1,-1,-1,-1,-1,-1,-1],"loss_changes":[2.3190241E10,2.60693E9,5.1645604E9,4.2650138E8,2.8763034E8,1.8297037E8,2.1447066E8,0E0,0E0,0E0,0E0,0E0,0E0,0E0,0E0],"parents":[2147483647,0,0,1,1,2,2,3,3,4,4,5,5,6,6],"right_children":[2,4,6,8,10,12,14,-1,-1,-1,-1,-1,-1,-1,-1],"split_conditions":[5E-1,4.25E1,2.99725E1,5E-1,5.15E1,3.15E1,2.85E1,3.312695E2,7.280053E2,1.0490916E3,1.4377235E3,1.7376649E3,2.451284E3,3.4979492E3,4.5736704E3],"split_indices":[4,0,2,3,0,0,0,0,0,0,0,0,0,0,0],"split_type":[0,0,0,0,0,0,0,0,0,0,0,0,0,0,0],"sum_hessian":[1.003E3,8E2,2.03E2,4.44E2,3.56E2,1E2,1.03E2,1.99E2,2.45E2,1.48E2,2.08E2,3.7E1,6.3E1,3.3E1,7E1],"tree_param":{"num_deleted":"0","num_feature":"6","num_nodes":"15","size_leaf_vector":"0"}},{"base_weights":[5.468797E3,3.5107544E3,1.3130185E4,1.9373184E3,4.8912734E3,8.773119E3,1.707565E4,1.4259131E3,3.243651E3,4.449506E3,6.6369277E3,7.496207E3,1.032759E4,1.5204774E4,1.9463102E4],"categories":[],"categories_nodes":[],"categories_segments":[],"categories_sizes":[],"default_left":[1,1,1,1,1,1,1,0,0,0,0,0,0,0,0],"id":4,"left_children":[1,3,5,7,9,11,13,-1,-1,-1,-1,-1,-1,-1,-1],"loss_changes":[1.5015234E10,1.7304228E9,3.3570857E9,2.4656755E8,2.9898854E8,1.1908966E8,1.7753088E8,0E0,0E0,0E0,0E0,0E0,0E0,0E0,0E0],"parents":[2147483647,0,0,1,1,2,2,3,3,4,4,5,5,6,6],"right_children":[2,4,6,8,10,12,14,-1,-1,-1,-1,-1,-1,-1,-1],"split_conditions":[5E-1,3.85E1,2.9875E1,1.5E0,5.85E1,4.1E1,4.35E1,2.8518262E2,6.4873016E2,8.899012E2,1.3273856E3,1.4992415E3,2.065518E3,3.0409548E3,3.8926204E3],"split_indices":[4,0,2,3,0,0,0,0,0,0,0,0,0,0,0],"split_type":[0,0,0,0,0,0,0,0,0,0,0,0,0,0,0],"sum_hessian":[1.003E3,8E2,2.03E2,3.75E2,4.25E2,9.8E1,1.05E2,2.71E2,1.04E2,3.42E2,8.3E1,5.7E1,4.1E1,6.3E1,4.2E1],"tree_param":{"num_deleted":"0","num_feature":"6","num_nodes":"15","size_leaf_vector":"0"}},{"base_weights":[4.3886323E3,2.8125374E3,1.055561E4,1.8791007E3,4.407249E3,7.116496E3,1.3794023E4,7.284908E2,2.2947024E3,3.7566978E3,5.944557E3,4.506978E3,7.70518E3,1.2656477E4,1.688241E4],"categories":[],"categories_nodes":[],"categories_segments":[],"categories_sizes":[],"default_left":[1,1,1,1,1,1,1,0,0,0,0,0,0,0,0],"id":5,"left_children":[1,3,5,7,9,11,13,-1,-1,-1,-1,-1,-1,-1,-1],"loss_changes":[9.728938E9,1.1840568E9,2.1738373E9,2.407735E8,2.7269683E8,1.2042701E8,1.5169946E8,0E0,0E0,0E0,0E0,0E0,0E0,0E0,0E0],"parents":[2147483647,0,0,1,1,2,2,3,3,4,4,5,5,6,6],"right_children":[2,4,6,8,10,12,14,-1,-1,-1,-1,-1,-1,-1,-1],"split_conditions":[5E-1,4.65E1,2.99725E1,2.25E1,1.5E0,2.2605E1,5.05E1,1.4569817E2,4.589405E2,7.5133954E2,1.1889115E3,9.013956E2,1.541036E3,2.5312954E3,3.3764822E3],"split_indices":[4,0,2,0,3,2,0,0,0,0,0,0,0,0,0],"split_type":[0,0,0,0,0,0,0,0,0,0,0,0,0,0,0],"sum_hessian":[1.003E3,8E2,2.03E2,5.06E2,2.94E2,1E2,1.03E2,1.35E2,3.71E2,2.09E2,8.5E1,2E1,8E1,7.9E1,2.4E1],"tree_param":{"num_deleted":"0","num_feature":"6","num_nodes":"15","size_leaf_vector":"0"}},{"base_weights":[3.5217578E3,2.253207E3,8.485421E3,1.1236865E3,3.114044E3,5.658254E3,1.1045838E4,7.058465E2,2.331717E3,2.4955596E3,3.8271213E3,2.4351775E3,6.074825E3,9.027494E3,1.2560544E4],"categories":[],"categories_nodes":[],"categories_segments":[],"categories_sizes":[],"default_left":[1,1,1,1,1,1,1,0,0,0,0,0,0,0,0],"id":6,"left_children":[1,3,5,7,9,11,13,-1,-1,-1,-1,-1,-1,-1,-1],"loss_changes":[6.302725E9,7.753395E8,1.4142013E9,1.7401184E8,1.9067546E8,1.1812838E8,2.106706E8,0E0,0E0,0E0,0E0,0E0,0E0,0E0,0E0],"parents":[2147483647,0,0,1,1,2,2,3,3,4,4,5,5,6,6],"right_children":[2,4,6,8,10,12,14,-1,-1,-1,-1,-1,-1,-1,-1],"split_conditions":[5E-1,3.65E1,2.9875E1,1.5E0,5.15E1,1.95E1,3.44425E1,1.411693E2,4.663434E2,4.991119E2,7.6542426E2,4.870355E2,1.2149651E3,1.8054989E3,2.512109E3],"split_indices":[4,0,2,3,0,0,2,0,0,0,0,0,0,0,0],"split_type":[0,0,0,0,0,0,0,0,0,0,0,0,0,0,0],"sum_hessian":[1.003E3,8E2,2.03E2,3.47E2,4.53E2,9.8E1,1.05E2,2.59E2,8.8E1,2.45E2,2.08E2,1.2E1,8.6E1,4.8E1,5.7E1],"tree_param":{"num_deleted":"0","num_feature":"6","num_nodes":"15","size_leaf_vector":"0"}},{"base_weights":[2.8252666E3,1.804903E3,6.8178447E3,1.2166135E3,2.9012126E3,4.6052466E3,8.942769E3,1.7750996E3,7.2932275E2,1.895467E3,3.929829E3,4.126697E3,7.850479E3,6.7850464E3,1.0000873E4],"categories":[],"categories_nodes":[],"categories_segments":[],"categories_sizes":[],"default_left":[1,1,1,1,1,1,1,0,0,0,0,0,0,0,0],"id":7,"left_children":[1,3,5,7,9,11,13,-1,-1,-1,-1,-1,-1,-1,-1],"loss_changes":[4.077872E9,5.1307315E8,9.179433E8,1.4103725E8,2.8118374E8,1.2601011E8,1.6730266E8,0E0,0E0,0E0,0E0,0E0,0E0,0E0,0E0],"parents":[2147483647,0,0,1,1,2,2,3,3,4,4,5,5,6,6],"right_children":[2,4,6,8,10,12,14,-1,-1,-1,-1,-1,-1,-1,-1],"split_conditions":[5E-1,4.75E1,3.011E1,1.5E0,5E-1,5.65E1,3.05E1,3.5501993E2,1.4586455E2,3.790934E2,7.859658E2,8.2533936E2,1.5700958E3,1.3570093E3,2.0001747E3],"split_indices":[4,0,2,5,3,0,0,0,0,0,0,0,0,0,0],"split_type":[0,0,0,0,0,0,0,0,0,0,0,0,0,0,0],"sum_hessian":[1.003E3,8E2,2.03E2,5.22E2,2.78E2,1.01E2,1.02E2,2.42E2,2.8E2,1.42E2,1.36E2,9E1,1.1E1,3.6E1,6.6E1],"tree_param":{"num_deleted":"0","num_feature":"6","num_nodes":"15","size_leaf_vector":"0"}},{"base_weights":[2.267602E3,1.4460021E3,5.4824746E3,6.6028815E2,2.0450824E3,4.3190024E3,8.33675E3,3.2579666E2,1.6300352E3,1.7753059E3,3.2122488E3,2.7318623E3,5.1589966E3,7.291017E3,1.1395745E4],"categories":[],"categories_nodes":[],"categories_segments":[],"categories_sizes":[],"default_left":[1,1,1,1,1,1,1,0,0,0,0,0,0,0,0],"id":8,"left_children":[1,3,5,7,9,11,13,-1,-1,-1,-1,-1,-1,-1,-1],"loss_changes":[2.6439772E9,3.75685E8,6.414515E8,1.1235043E8,1.3724992E8,1.8188493E8,1.0244915E8,0E0,0E0,0E0,0E0,0E0,0E0,0E0,0E0],"parents":[2147483647,0,0,1,1,2,2,3,3,4,4,5,5,6,6],"right_children":[2,4,6,8,10,12,14,-1,-1,-1,-1,-1,-1,-1,-1],"split_conditions":[5E-1,3.65E1,3.44425E1,1.5E0,5.85E1,2.605E1,5.15E1,6.515933E1,3.2600705E2,3.550612E2,6.4244977E2,5.463725E2,1.0317993E3,1.4582035E3,2.2791492E3],"split_indices":[4,0,2,3,0,2,0,0,0,0,0,0,0,0,0],"split_type":[0,0,0,0,0,0,0,0,0,0,0,0,0,0,0],"sum_hessian":[1.003E3,8E2,2.03E2,3.47E2,4.53E2,1.46E2,5.7E1,2.59E2,8.8E1,3.7E2,8.3E1,5.2E1,9.4E1,4.5E1,1.2E1],"tree_param":{"num_deleted":"0","num_feature":"6","num_nodes":"15","size_leaf_vector":"0"}},{"base_weights":[1.820759E3,1.1585352E3,4.412036E3,4.037527E2,1.576912E3,3.8163486E3,8.175751E3,-9.452123E1,1.0411862E3,1.4136713E3,2.8387632E3,2.9205225E3,5.486696E3,4.2699404E3,8.669373E3],"categories":[],"categories_nodes":[],"categories_segments":[],"categories_sizes":[],"default_left":[1,1,1,1,1,1,1,0,0,0,0,0,0,0,0],"id":9,"left_children":[1,3,5,7,9,11,13,-1,-1,-1,-1,-1,-1,-1,-1],"loss_changes":[1.7177577E9,2.5230592E8,4.261655E8,9.1254344E7,1.0206938E8,2.5032474E8,1.5038336E7,0E0,0E0,0E0,0E0,0E0,0E0,0E0,0E0],"parents":[2147483647,0,0,1,1,2,2,3,3,4,4,5,5,6,6],"right_children":[2,4,6,8,10,12,14,-1,-1,-1,-1,-1,-1,-1,-1],"split_conditions":[5E-1,3.25E1,3.766E1,5E-1,6.05E1,4.45E1,2.1E1,-1.8904247E1,2.0823723E2,2.8273425E2,5.677526E2,5.841045E2,1.0973392E3,8.539881E2,1.7338746E3],"split_indices":[4,0,2,3,0,0,0,0,0,0,0,0,0,0,0],"split_type":[0,0,0,0,0,0,0,0,0,0,0,0,0,0,0],"sum_hessian":[1.003E3,8E2,2.03E2,2.86E2,5.14E2,1.77E2,2.6E1,1.61E2,1.25E2,4.57E2,5.7E1,1.17E2,6E1,4E0,2.2E1],"tree_param":{"num_deleted":"0","num_feature":"6","num_nodes":"15","size_leaf_vector":"0"}},{"base_weights":[1.461895E3,9.281262E2,3.5505566E3,6.0816455E2,1.630889E3,1.971275E3,4.6848525E3,2.4343152E2,1.1254017E3,9.7930035E2,3.3604456E3,3.9180173E2,2.7542566E3,4.0885007E3,6.7397417E3],"categories":[],"categories_nodes":[],"categories_segments":[],"categories_sizes":[],"default_left":[1,1,1,1,1,1,1,0,0,0,0,0,0,0,0],"id":10,"left_children":[1,3,5,7,9,11,13,-1,-1,-1,-1,-1,-1,-1,-1],"loss_changes":[1.1160264E9,1.7911872E8,3.5620506E8,1.0386275E8,2.784489E8,1.065136E8,1.1704627E8,0E0,0E0,0E0,0E0,0E0,0E0,0E0,0E0],"parents":[2147483647,0,0,1,1,2,2,3,3,4,4,5,5,6,6],"right_children":[2,4,6,8,10,12,14,-1,-1,-1,-1,-1,-1,-1,-1],"split_conditions":[5E-1,1.5E0,2.8494999E1,4.45E1,4.95E1,3.1E1,3.793E1,4.8686306E1,2.2508035E2,1.9586008E2,6.720891E2,7.8360344E1,5.508513E2,8.1770013E2,1.3479484E3],"split_indices":[4,3,2,0,0,0,2,0,0,0,0,0,0,0,0],"split_type":[0,0,0,0,0,0,0,0,0,0,0,0,0,0,0],"sum_hessian":[1.003E3,8E2,2.03E2,5.51E2,2.49E2,8.6E1,1.17E2,3.24E2,2.27E2,1.82E2,6.7E1,2.9E1,5.7E1,9.3E1,2.4E1],"tree_param":{"num_deleted":"0","num_feature":"6","num_nodes":"15","size_leaf_vector":"0"}},{"base_weights":[1.1734371E3,7.4392645E2,2.854146E3,1.1732828E3,3.6321768E2,1.7122034E3,3.8937512E3,3.234768E2,1.8959082E3,1.8015067E2,2.0326838E3,1.415997E3,3.9531274E3,3.2724702E3,5.993484E3],"categories":[],"categories_nodes":[],"categories_segments":[],"categories_sizes":[],"default_left":[1,1,1,1,1,1,1,0,0,0,0,0,0,0,0],"id":11,"left_children":[1,3,5,7,9,11,13,-1,-1,-1,-1,-1,-1,-1,-1],"loss_changes":[7.226465E8,1.3050509E8,2.3551578E8,2.3028512E8,1.2982972E8,6.0116224E7,1.1866598E8,0E0,0E0,0E0,0E0,0E0,0E0,0E0,0E0],"parents":[2147483647,0,0,1,1,2,2,3,3,4,4,5,5,6,6],"right_children":[2,4,6,8,10,12,14,-1,-1,-1,-1,-1,-1,-1,-1],"split_conditions":[5E-1,1.5E0,2.9875E1,5E-1,5.85E1,5.65E1,5.15E1,6.4695366E1,3.7918164E2,3.6030132E1,4.0653677E2,2.831994E2,7.906255E2,6.544941E2,1.1986968E3],"split_indices":[4,5,2,3,0,0,0,0,0,0,0,0,0,0,0],"split_type":[0,0,0,0,0,0,0,0,0,0,0,0,0,0,0],"sum_hessian":[1.003E3,8E2,2.03E2,3.75E2,4.25E2,9.8E1,1.05E2,1.73E2,2.02E2,3.84E2,4.1E1,8.8E1,1E1,8.3E1,2.2E1],"tree_param":{"num_deleted":"0","num_feature":"6","num_nodes":"15","size_leaf_vector":"0"}},{"base_weights":[9.425481E2,5.9624774E2,2.2976658E3,-3.6447397E2,7.5132684E2,1.6848516E3,3.8112183E3,-1.4065474E3,1.6570324E1,2.3245045E2,1.161781E3,1.1396919E3,2.7854998E3,3.4083E3,8.398539E3],"categories":[],"categories_nodes":[],"categories_segments":[],"categories_sizes":[],"default_left":[1,1,1,1,1,1,1,0,0,0,0,0,0,0,0],"id":12,"left_children":[1,3,5,7,9,11,13,-1,-1,-1,-1,-1,-1,-1,-1],"loss_changes":[4.6978464E8,1.1961312E8,1.8279411E8,4.4495824E7,1.4668272E8,8.502963E7,7.85776E7,0E0,0E0,0E0,0E0,0E0,0E0,0E0,0E0],"parents":[2147483647,0,0,1,1,2,2,3,3,4,4,5,5,6,6],"right_children":[2,4,6,8,10,12,14,-1,-1,-1,-1,-1,-1,-1,-1],"split_conditions":[5E-1,2.4095001E1,3.44425E1,2.25E1,5E-1,4.45E1,4.6475E1,-2.8130948E2,3.3140647E0,4.6490093E1,2.323562E2,2.2793839E2,5.571E2,6.8166003E2,1.6797079E3],"split_indices":[4,2,2,0,3,0,2,0,0,0,0,0,0,0,0],"split_type":[0,0,0,0,0,0,0,0,0,0,0,0,0,0,0],"sum_hessian":[1.003E3,8E2,2.03E2,1.11E2,6.89E2,1.46E2,5.7E1,2.9E1,8.2E1,3.05E2,3.84E2,9.9E1,4.7E1,5.4E1,3E0],"tree_param":{"num_deleted":"0","num_feature":"6","num_nodes":"15","size_leaf_vector":"0"}},{"base_weights":[7.571732E2,4.769992E2,1.8535565E3,2.5342503E2,9.954561E2,6.6966266E2,2.4536973E3,1.00540344E3,4.6525234E1,5.057628E2,2.2338557E3,-3.3198618E2,1.0769619E3,1.7575294E3,3.5658655E3],"categories":[],"categories_nodes":[],"categories_segments":[],"categories_sizes":[],"default_left":[1,1,1,1,1,1,1,0,0,0,0,0,0,0,0],"id":13,"left_children":[1,3,5,7,9,11,13,-1,-1,-1,-1,-1,-1,-1,-1],"loss_changes":[3.0752262E8,9.25945E7,1.4329946E8,8.723594E7,1.4502128E8,2.89155E7,9.825741E7,0E0,0E0,0E0,0E0,0E0,0E0,0E0,0E0],"parents":[2147483647,0,0,1,1,2,2,3,3,4,4,5,5,6,6],"right_children":[2,4,6,8,10,12,14,-1,-1,-1,-1,-1,-1,-1,-1],"split_conditions":[5E-1,4.95E1,2.7720001E1,5E-1,1.5E0,2.95E1,4.25E1,2.0108069E2,9.305047E0,1.0115256E2,4.4677115E2,-6.639724E1,2.1539238E2,3.515059E2,7.131731E2],"split_indices":[4,0,2,5,3,0,0,0,0,0,0,0,0,0,0],"split_type":[0,0,0,0,0,0,0,0,0,0,0,0,0,0,0],"sum_hessian":[1.003E3,8E2,2.03E2,5.6E2,2.4E2,6.9E1,1.34E2,1.2E2,4.4E2,1.73E2,6.7E1,2E1,4.9E1,8.4E1,5E1],"tree_param":{"num_deleted":"0","num_feature":"6","num_nodes":"15","size_leaf_vector":"0"}},{"base_weights":[6.0770264E2,3.8254608E2,1.4887942E3,-1.14626236E2,5.6982336E2,1.3609347E3,6.305415E3,-1.3250447E3,1.9550705E2,2.8668416E3,4.0409995E2,2.8592148E2,1.7367101E3,7.6663384E3,2.8426863E3],"categories":[],"categories_nodes":[],"categories_segments":[],"categories_sizes":[],"default_left":[1,1,1,1,1,1,1,0,0,0,0,0,0,0,0],"id":14,"left_children":[1,3,5,7,9,11,13,-1,-1,-1,-1,-1,-1,-1,-1],"loss_changes":[1.9860752E8,7.46457E7,1.1705226E8,8.2845096E7,2.2039126E8,8.029616E7,1.769552E6,0E0,0E0,0E0,0E0,0E0,0E0,0E0,0E0],"parents":[2147483647,0,0,1,1,2,2,3,3,4,4,5,5,6,6],"right_children":[2,4,6,8,10,12,14,-1,-1,-1,-1,-1,-1,-1,-1],"split_conditions":[5E-1,2.676E1,4.521E1,2.25E1,2.76725E1,2.605E1,1.5E0,-2.6500894E2,3.910141E1,5.7336835E2,8.081999E1,5.7184296E1,3.47342E2,1.5332677E3,5.685373E2],"split_indices":[4,2,2,0,2,2,3,0,0,0,0,0,0,0,0],"split_type":[0,0,0,0,0,0,0,0,0,0,0,0,0,0,0],"sum_hessian":[1.003E3,8E2,2.03E2,2.19E2,5.81E2,1.99E2,4E0,4.4E1,1.75E2,3.8E1,5.43E2,5.2E1,1.47E2,2E0,2E0],"tree_param":{"num_deleted":"0","num_feature":"6","num_nodes":"15","size_leaf_vector":"0"}},{"base_weights":[4.890848E2,3.0657147E2,1.2033207E3,6.323967E2,1.8268938E1,9.308838E2,2.9548184E3,3.359841E2,2.4728145E3,1.9424469E2,-1.0584205E3,-7.1149243E2,1.1670618E3,4.37356E3,1.7060859E3],"categories":[],"categories_nodes":[],"categories_segments":[],"categories_sizes":[],"default_left":[1,1,1,1,1,1,1,0,0,0,0,0,0,0,0],"id":15,"left_children":[1,3,5,7,9,11,13,-1,-1,-1,-1,-1,-1,-1,-1],"loss_changes":[1.3051011E8,7.5231384E7,9.459258E7,2.0428581E8,8.092034E7,6.987533E7,4.037232E7,0E0,0E0,0E0,0E0,0E0,0E0,0E0,0E0],"parents":[2147483647,0,0,1,1,2,2,3,3,4,4,5,5,6,6],"right_children":[2,4,6,8,10,12,14,-1,-1,-1,-1,-1,-1,-1,-1],"split_conditions":[5E-1,1.5E0,3.766E1,3.58625E1,3.9074997E1,1.95E1,5E-1,6.719682E1,4.945629E2,3.8848938E1,-2.1168411E2,-1.422985E2,2.3341235E2,8.7471204E2,3.412172E2],"split_indices":[4,5,2,2,2,0,1,0,0,0,0,0,0,0,0],"split_type":[0,0,0,0,0,0,0,0,0,0,0,0,0,0,0],"sum_hessian":[1.003E3,8E2,2.03E2,3.75E2,4.25E2,1.77E2,2.6E1,3.24E2,5.1E1,3.66E2,5.9E1,2.2E1,1.55E2,1.1E1,1.5E1],"tree_param":{"num_deleted":"0","num_feature":"6","num_nodes":"15","size_leaf_vector":"0"}},{"base_weights":[3.9295694E2,2.939235E2,1.4741099E3,-3.1642431E1,5.6453625E2,1.2421039E3,1.0365307E4,-7.514065E2,1.4839275E2,1.3752877E3,5.5341606E1,6.319641E2,2.6323496E3],"categories":[],"categories_nodes":[],"categories_segments":[],"categories_sizes":[],"default_left":[1,1,1,1,1,1,0,0,0,0,0,0,0],"id":16,"left_children":[1,3,5,7,9,11,-1,-1,-1,-1,-1,-1,-1],"loss_changes":[1.0706531E8,8.116007E7,1.6040138E8,5.4406716E7,2.0757754E8,6.874072E7,0E0,0E0,0E0,0E0,0E0,0E0,0E0],"parents":[2147483647,0,0,1,1,2,2,3,3,4,4,5,5],"right_children":[2,4,6,8,10,12,-1,-1,-1,-1,-1,-1,-1],"split_conditions":[5.95E1,2.9595001E1,3.5E0,2.25E1,1.5E0,5E-1,2.0730613E3,-1.502813E2,2.9678549E1,2.7505756E2,1.1068321E1,1.2639282E2,5.264699E2],"split_indices":[0,2,3,0,5,3,0,0,0,0,0,0,0],"split_type":[0,0,0,0,0,0,0,0,0,0,0,0,0],"sum_hessian":[1.003E3,9.2E2,8.3E1,4.18E2,5.02E2,8.2E1,1E0,8.3E1,3.35E2,1.93E2,3.09E2,5.8E1,2.4E1],"tree_param":{"num_deleted":"0","num_feature":"6","num_nodes":"13","size_leaf_vector":"0"}},{"base_weights":[3.1724557E2,1.682682E2,9.0064575E2,1.0858711E2,1.6471666E3,7.94422E2,4.9694663E3,2.1151147E2,-8.2181573E2,1.0801538E3,9.328776E3,1.454271E2,1.1504934E3,2.5116768E3,7.4003125E3],"categories":[],"categories_nodes":[],"categories_segments":[],"categories_sizes":[],"default_left":[1,1,1,1,1,1,1,0,0,0,0,0,0,0,0],"id":17,"left_children":[1,3,5,7,9,11,13,-1,-1,-1,-1,-1,-1,-1,-1],"loss_changes":[8.710953E7,7.051921E7,8.422203E7,7.400565E7,1.2494622E8,4.60504E7,1.1285352E7,0E0,0E0,0E0,0E0,0E0,0E0,0E0,0E0],"parents":[2147483647,0,0,1,1,2,2,3,3,4,4,5,5,6,6],"right_children":[2,4,6,8,10,12,14,-1,-1,-1,-1,-1,-1,-1,-1],"split_conditions":[5E-1,3.5E0,4.521E1,3.915E1,5.9E1,3.05E1,4.55E1,4.2302296E1,-1.6436314E2,2.1603076E2,1.8657552E3,2.9085419E1,2.3009868E2,5.0233536E2,1.4800625E3],"split_indices":[4,3,2,2,0,0,0,0,0,0,0,0,0,0,0],"split_type":[0,0,0,0,0,0,0,0,0,0,0,0,0,0,0],"sum_hessian":[1.003E3,8E2,2.03E2,7.7E2,3E1,1.99E2,4E0,6.94E2,7.6E1,2.9E1,1E0,7.1E1,1.28E2,3E0,1E0],"tree_param":{"num_deleted":"0","num_feature":"6","num_nodes":"15","size_leaf_vector":"0"}},{"base_weights":[2.579809E2,-6.313016E2,3.462377E2,7.283767E2,-9.765425E2,1.8262778E2,8.181888E2,-1.9510324E2,8.675508E3,-4.9491638E2,-1.4853103E3,8.3921625E2,6.2192755E0,3.135001E2,1.450888E3],"categories":[],"categories_nodes":[],"categories_segments":[],"categories_sizes":[],"default_left":[1,1,1,1,1,1,1,0,0,0,0,0,0,0,0],"id":18,"left_children":[1,3,5,7,9,11,13,-1,-1,-1,-1,-1,-1,-1,-1],"loss_changes":[7.901776E7,4.3428196E7,7.042589E7,1.4113392E8,1.7152512E7,7.875768E7,7.458443E7,0E0,0E0,0E0,0E0,0E0,0E0,0E0,0E0],"parents":[2147483647,0,0,1,1,2,2,3,3,4,4,5,5,6,6],"right_children":[2,4,6,8,10,12,14,-1,-1,-1,-1,-1,-1,-1,-1],"split_conditions":[2.2657501E1,1.8810001E1,5.15E1,1.8657501E1,5E-1,5E-1,5E-1,-3.902065E1,1.7351016E3,-9.898328E1,-2.9706207E2,1.6784325E2,1.2438551E0,6.270002E1,2.9017758E2],"split_indices":[2,2,0,2,1,5,3,0,0,0,0,0,0,0,0],"split_type":[0,0,0,0,0,0,0,0,0,0,0,0,0,0,0],"sum_hessian":[1.003E3,9E1,9.13E2,1.8E1,7.2E1,6.79E2,2.34E2,1.7E1,1E0,3.8E1,3.4E1,1.43E2,5.36E2,1.31E2,1.03E2],"tree_param":{"num_deleted":"0","num_feature":"6","num_nodes":"15","size_leaf_vector":"0"}},{"base_weights":[2.0819957E2,1.3341603E2,1.0256691E3,-2.4831262E2,2.8153738E2,8.3921185E2,8.25081E3,-1.1391028E3,-1.08018135E2,6.5799697E3,2.4299689E2,1.2162056E3,-5.897213E2],"categories":[],"categories_nodes":[],"categories_segments":[],"categories_sizes":[],"default_left":[1,1,1,1,1,1,0,0,0,0,0,0,0],"id":19,"left_children":[1,3,5,7,9,11,-1,-1,-1,-1,-1,-1,-1],"loss_changes":[6.124096E7,5.214525E7,1.062389E8,3.2119972E7,1.5958355E8,4.5429224E7,0E0,0E0,0E0,0E0,0E0,0E0,0E0],"parents":[2147483647,0,0,1,1,2,2,3,3,4,4,5,5],"right_children":[2,4,6,8,10,12,-1,-1,-1,-1,-1,-1,-1],"split_conditions":[5.95E1,2.676E1,3.5E0,1.95E1,2.682E1,3.788E1,1.650162E3,-2.2782056E2,-2.1603628E1,1.315994E3,4.8599377E1,2.4324112E2,-1.1794427E2],"split_indices":[0,2,3,0,2,2,0,0,0,0,0,0,0],"split_type":[0,0,0,0,0,0,0,0,0,0,0,0,0],"sum_hessian":[1.003E3,9.2E2,8.3E1,2.57E2,6.63E2,8.2E1,1E0,3.4E1,2.23E2,3E0,6.6E2,6.5E1,1.7E1],"tree_param":{"num_deleted":"0","num_feature":"6","num_nodes":"13","size_leaf_vector":"0"}},{"base_weights":[1.6943878E2,4.696092E1,6.495139E2,-7.19906E-1,1.2313143E3,5.54507E2,4.319889E3,8.3603935E1,-7.6181537E2,7.773095E2,7.4257285E3,-4.7043356E2,7.0361523E2,2.097545E3,6.604633E3],"categories":[],"categories_nodes":[],"categories_segments":[],"categories_sizes":[],"default_left":[1,1,1,1,1,1,1,0,0,0,0,0,0,0,0],"id":20,"left_children":[1,3,5,7,9,11,13,-1,-1,-1,-1,-1,-1,-1,-1],"loss_changes":[5.9003268E7,4.523411E7,6.874167E7,4.9545308E7,8.140901E7,3.089642E7,1.153392E7,0E0,0E0,0E0,0E0,0E0,0E0,0E0,0E0],"parents":[2147483647,0,0,1,1,2,2,3,3,4,4,5,5,6,6],"right_children":[2,4,6,8,10,12,14,-1,-1,-1,-1,-1,-1,-1,-1],"split_conditions":[5E-1,3.5E0,4.521E1,3.915E1,5.9E1,1.95E1,4.55E1,1.6720787E1,-1.5236308E2,1.554619E2,1.4851458E3,-9.4086716E1,1.4072305E2,4.19509E2,1.3209266E3],"split_indices":[4,3,2,2,0,0,0,0,0,0,0,0,0,0,0],"split_type":[0,0,0,0,0,0,0,0,0,0,0,0,0,0,0],"sum_hessian":[1.003E3,8E2,2.03E2,7.7E2,3E1,1.99E2,4E0,6.94E2,7.6E1,2.9E1,1E0,2.5E1,1.74E2,3E0,1E0],"tree_param":{"num_deleted":"0","num_feature":"6","num_nodes":"15","size_leaf_vector":"0"}},{"base_weights":[1.3883008E2,2.6260649E1,5.0302625E2,-1.6988322E2,3.555815E2,1.671251E3,-6.703937E0,-9.924972E1,-1.3565126E3,3.0133352E3,2.0824858E2,-2.8862622E2,3.2463684E3,4.4341616E3,-2.3010155E2],"categories":[],"categories_nodes":[],"categories_segments":[],"categories_sizes":[],"default_left":[1,1,1,1,1,1,1,0,0,0,0,0,0,0,0],"id":21,"left_children":[1,3,5,7,9,11,13,-1,-1,-1,-1,-1,-1,-1,-1],"loss_changes":[4.1148132E7,4.9668804E7,1.4113982E8,4.0264584E7,1.1175438E8,2.2320362E8,1.6570538E8,0E0,0E0,0E0,0E0,0E0,0E0,0E0,0E0],"parents":[2147483647,0,0,1,1,2,2,3,3,4,4,5,5,6,6],"right_children":[2,4,6,8,10,12,14,-1,-1,-1,-1,-1,-1,-1,-1],"split_conditions":[3.52225E1,4.45E1,1.5E0,3.4205E1,4.55E1,5E-1,3.5515E1,-1.9849943E1,-2.7130252E2,6.0266705E2,4.1649715E1,-5.7725246E1,6.492737E2,8.8683234E2,-4.602031E1],"split_indices":[2,0,5,2,0,3,2,0,0,0,0,0,0,0,0],"split_type":[0,0,0,0,0,0,0,0,0,0,0,0,0,0,0],"sum_hessian":[1.003E3,7.67E2,2.36E2,4.81E2,2.86E2,7.1E1,1.65E2,4.55E2,2.6E1,1.4E1,2.72E2,3.2E1,3.9E1,7E0,1.58E2],"tree_param":{"num_deleted":"0","num_feature":"6","num_nodes":"15","size_leaf_vector":"0"}},{"base_weights":[1.1284258E2,5.3038483E1,7.6720844E2,-1.6635588E2,2.3568898E2,6.159138E2,6.66233E3,-1.7223751E1,-1.0583761E3,3.1776892E3,1.0091783E2,2.0575964E2,1.5592411E3],"categories":[],"categories_nodes":[],"categories_segments":[],"categories_sizes":[],"default_left":[1,1,1,1,1,1,0,0,0,0,0,0,0],"id":22,"left_children":[1,3,5,7,9,11,-1,-1,-1,-1,-1,-1,-1],"loss_changes":[3.92496E7,3.6945972E7,7.081619E7,5.5720868E7,1.9911717E8,3.1792668E7,0E0,0E0,0E0,0E0,0E0,0E0,0E0],"parents":[2147483647,0,0,1,1,2,2,3,3,4,4,5,5],"right_children":[2,4,6,8,10,12,-1,-1,-1,-1,-1,-1,-1],"split_conditions":[5.95E1,2.9595001E1,3.5E0,2.85475E1,2.9805E1,5E-1,1.3324661E3,-3.4447503E0,-2.1167522E2,6.3553784E2,2.0183567E1,4.1151928E1,3.1184824E2],"split_indices":[0,2,3,2,2,3,0,0,0,0,0,0,0],"split_type":[0,0,0,0,0,0,0,0,0,0,0,0,0],"sum_hessian":[1.003E3,9.2E2,8.3E1,4.18E2,5.02E2,8.2E1,1E0,3.59E2,5.9E1,2.1E1,4.81E2,5.8E1,2.4E1],"tree_param":{"num_deleted":"0","num_feature":"6","num_nodes":"13","size_leaf_vector":"0"}},{"base_weights":[9.239165E1,-6.9414506E0,4.8196722E2,5.328693E1,-6.675522E2,3.8682404E2,3.557222E3,-5.7430515E1,6.2689514E2,-1.5891007E3,-4.1627008E2,3.654819E3,3.3509402E2,1.8858313E3,5.957088E3],"categories":[],"categories_nodes":[],"categories_segments":[],"categories_sizes":[],"default_left":[1,1,1,1,1,1,1,0,0,0,0,0,0,0,0],"id":23,"left_children":[1,3,5,7,9,11,13,-1,-1,-1,-1,-1,-1,-1,-1],"loss_changes":[3.8855884E7,3.1905368E7,5.8312256E7,4.67147E7,1.4853602E7,3.2416912E7,1.2832616E7,0E0,0E0,0E0,0E0,0E0,0E0,0E0,0E0],"parents":[2147483647,0,0,1,1,2,2,3,3,4,4,5,5,6,6],"right_children":[2,4,6,8,10,12,14,-1,-1,-1,-1,-1,-1,-1,-1],"split_conditions":[5E-1,3.9754997E1,4.4385002E1,3.5305E1,5E-1,1.786E1,4.55E1,-1.1486103E1,1.2537903E2,-3.1782016E2,-8.325402E1,7.309638E2,6.701881E1,3.7716626E2,1.1914176E3],"split_indices":[4,2,2,2,5,2,0,0,0,0,0,0,0,0,0],"split_type":[0,0,0,0,0,0,0,0,0,0,0,0,0,0,0],"sum_hessian":[1.003E3,8E2,2.03E2,7.34E2,6.6E1,1.98E2,5E0,6.16E2,1.18E2,1.3E1,5.3E1,2E0,1.96E2,4E0,1E0],"tree_param":{"num_deleted":"0","num_feature":"6","num_nodes":"15","size_leaf_vector":"0"}},{"base_weights":[7.59844E1,-5.201374E2,1.3525256E2,6.40889E2,-8.151972E2,3.692515E3,1.1948494E2,-1.9326033E2,7.8277886E3,-1.1450203E3,-2.4423079E2,8.212938E3,-5.5193915E2,1.811117E1,5.226652E2],"categories":[],"categories_nodes":[],"categories_segments":[],"categories_sizes":[],"default_left":[1,1,1,1,1,1,1,0,0,0,0,0,0,0,0],"id":24,"left_children":[1,3,5,7,9,11,13,-1,-1,-1,-1,-1,-1,-1,-1],"loss_changes":[3.554272E7,3.169652E7,5.082466E7,1.1541681E8,1.346756E7,8.127996E7,3.7224844E7,0E0,0E0,0E0,0E0,0E0,0E0,0E0,0E0],"parents":[2147483647,0,0,1,1,2,2,3,3,4,4,5,5,6,6],"right_children":[2,4,6,8,10,12,14,-1,-1,-1,-1,-1,-1,-1,-1],"split_conditions":[2.2657501E1,1.8810001E1,2.2752499E1,1.8657501E1,2.16125E1,3.5E1,5E-1,-3.8652065E1,1.5655577E3,-2.2900406E2,-4.8846157E1,1.6425878E3,-1.1038783E2,3.622234E0,1.0453304E2],"split_indices":[2,2,2,2,2,0,4,0,0,0,0,0,0,0,0],"split_type":[0,0,0,0,0,0,0,0,0,0,0,0,0,0,0],"sum_hessian":[1.003E3,9E1,9.13E2,1.8E1,7.2E1,3E0,9.1E2,1.7E1,1E0,4.5E1,2.7E1,1E0,2E0,7.28E2,1.82E2],"tree_param":{"num_deleted":"0","num_feature":"6","num_nodes":"15","size_leaf_vector":"0"}},{"base_weights":[6.3665657E1,1.626029E2,-2.171513E2,-1.2164312E2,3.9126086E2,3.5293613E2,-5.277453E2,-2.6564227E2,1.657292E3,3.7864739E3,2.8868277E2,-6.6255743E2,3.1415808E3,-7.6506323E2,1.2903925E3],"categories":[],"categories_nodes":[],"categories_segments":[],"categories_sizes":[],"default_left":[1,1,1,1,1,1,1,0,0,0,0,0,0,0,0],"id":25,"left_children":[1,3,5,7,9,11,13,-1,-1,-1,-1,-1,-1,-1,-1],"loss_changes":[2.7929704E7,4.833897E7,4.657749E7,8.548706E7,1.42396E8,2.6544358E8,7.433827E7,0E0,0E0,0E0,0E0,0E0,0E0,0E0,0E0],"parents":[2147483647,0,0,1,1,2,2,3,3,4,4,5,5,6,6],"right_children":[2,4,6,8,10,12,14,-1,-1,-1,-1,-1,-1,-1,-1],"split_conditions":[2.5E0,2.9615E1,2.805E1,5.95E1,2.97725E1,2.675E1,5.85E1,-5.3128456E1,3.314584E2,7.572948E2,5.7736553E1,-1.3251149E2,6.2831616E2,-1.5301265E2,2.580785E2],"split_indices":[5,2,2,0,2,2,0,0,0,0,0,0,0,0,0],"split_type":[0,0,0,0,0,0,0,0,0,0,0,0,0,0,0],"sum_hessian":[1.003E3,7.42E2,2.61E2,3.31E2,4.11E2,9.2E1,1.69E2,3.07E2,2.4E1,1.1E1,4E2,6.8E1,2.4E1,1.5E2,1.9E1],"tree_param":{"num_deleted":"0","num_feature":"6","num_nodes":"15","size_leaf_vector":"0"}},{"base_weights":[5.2619995E1,2.4232958E1,8.871528E2,-5.140869E1,3.1282443E2,5.416788E2,5.97116E3,2.2098572E1,-6.009366E2,2.3650731E2,3.272418E3,2.5234324E3,-1.1414951E2],"categories":[],"categories_nodes":[],"categories_segments":[],"categories_sizes":[],"default_left":[1,1,1,1,1,1,0,0,0,0,0,0,0],"id":26,"left_children":[1,3,5,7,9,11,-1,-1,-1,-1,-1,-1,-1],"loss_changes":[2.3763174E7,2.123439E7,5.4726496E7,3.1157278E7,4.485132E7,4.187813E7,0E0,0E0,0E0,0E0,0E0,0E0,0E0],"parents":[2147483647,0,0,1,1,2,2,3,3,4,4,5,5],"right_children":[2,4,6,8,10,12,-1,-1,-1,-1,-1,-1,-1],"split_conditions":[3.5E0,5E-1,5.9E1,3.82825E1,4.521E1,5E-1,1.194232E3,4.4197145E0,-1.2018732E2,4.7301464E1,6.544836E2,5.046865E2,-2.2829903E1],"split_indices":[3,4,0,2,2,5,0,0,0,0,0,0,0],"split_type":[0,0,0,0,0,0,0,0,0,0,0,0,0],"sum_hessian":[1.003E3,9.71E2,3.2E1,7.7E2,2.01E2,3.1E1,1E0,6.8E2,9E1,1.97E2,4E0,7E0,2.4E1],"tree_param":{"num_deleted":"0","num_feature":"6","num_nodes":"13","size_leaf_vector":"0"}},{"base_weights":[4.434912E1,-4.2750156E1,2.8865295E2,8.188646E1,-3.4409335E2,1.1959152E3,-9.824147E1,4.3124153E1,2.9441367E3,-1.5486514E3,-2.1394203E2,-3.3280795E2,2.3583462E3,-3.0218936E2,1.2272706E3],"categories":[],"categories_nodes":[],"categories_segments":[],"categories_sizes":[],"default_left":[1,1,1,1,1,1,1,0,0,0,0,0,0,0,0],"id":27,"left_children":[1,3,5,7,9,11,13,-1,-1,-1,-1,-1,-1,-1,-1],"loss_changes":[2.1376144E7,2.785895E7,9.278538E7,5.8120436E7,3.3688816E7,1.4117066E8,5.0653256E7,0E0,0E0,0E0,0E0,0E0,0E0,0E0,0E0],"parents":[2147483647,0,0,1,1,2,2,3,3,4,4,5,5,6,6],"right_children":[2,4,6,8,10,12,14,-1,-1,-1,-1,-1,-1,-1,-1],"split_conditions":[3.44575E1,3.0685001E1,1.5E0,3.0545E1,3.0985E1,5E-1,5.85E1,8.624831E0,5.8882733E2,-3.097303E2,-4.2788406E1,-6.656159E1,4.7166925E2,-6.0437874E1,2.4545413E2],"split_indices":[2,2,5,2,2,3,0,0,0,0,0,0,0,0,0],"split_type":[0,0,0,0,0,0,0,0,0,0,0,0,0,0,0],"sum_hessian":[1.003E3,7.4E2,2.63E2,5.24E2,2.16E2,7.8E1,1.85E2,5.18E2,6E0,2E1,1.96E2,3.4E1,4.4E1,1.61E2,2.4E1],"tree_param":{"num_deleted":"0","num_feature":"6","num_nodes":"15","size_leaf_vector":"0"}},{"base_weights":[3.6310955E1,-2.816674E2,8.944983E1,2.2051349E2,-6.861685E2,1.9594683E3,4.264859E1,8.0461273E2,-4.8775607E2,-2.7915518E2,-1.2286232E3,8.21746E3,4.5994415E2,-1.591733E3,6.622682E1],"categories":[],"categories_nodes":[],"categories_segments":[],"categories_sizes":[],"default_left":[1,1,1,1,1,1,1,0,0,0,0,0,0,0,0],"id":28,"left_children":[1,3,5,7,9,11,13,-1,-1,-1,-1,-1,-1,-1,-1],"loss_changes":[1.6989792E7,2.9402422E7,7.527044E7,2.7282936E7,1.731992E7,1.9328462E8,3.2514044E7,0E0,0E0,0E0,0E0,0E0,0E0,0E0,0E0],"parents":[2147483647,0,0,1,1,2,2,3,3,4,4,5,5,6,6],"right_children":[2,4,6,8,10,12,14,-1,-1,-1,-1,-1,-1,-1,-1],"split_conditions":[2.4095001E1,5E-1,2.4465E1,3.35E1,5E-1,5E-1,2.46525E1,1.6092255E2,-9.7551216E1,-5.5831036E1,-2.4572464E2,1.6434921E3,9.198883E1,-3.1834662E2,1.3245364E1],"split_indices":[2,3,2,0,1,5,2,0,0,0,0,0,0,0,0],"split_type":[0,0,0,0,0,0,0,0,0,0,0,0,0,0,0],"sum_hessian":[1.003E3,1.43E2,8.6E2,6.4E1,7.9E1,2E1,8.4E2,3.5E1,2.9E1,4.6E1,3.3E1,3E0,1.7E1,1.1E1,8.29E2],"tree_param":{"num_deleted":"0","num_feature":"6","num_nodes":"15","size_leaf_vector":"0"}},{"base_weights":[3.0236076E1,6.370193E0,7.322786E2,-7.566677E1,2.0736726E2,4.1836133E2,5.3888154E3,-1.3891914E1,-5.82859E2,-4.054216E1,8.449135E2,1.2338374E3,-8.683988E2],"categories":[],"categories_nodes":[],"categories_segments":[],"categories_sizes":[],"default_left":[1,1,1,1,1,1,0,0,0,0,0,0,0],"id":29,"left_children":[1,3,5,7,9,11,-1,-1,-1,-1,-1,-1,-1],"loss_changes":[1.681722E7,1.6043182E7,4.598385E7,2.1642128E7,4.460541E7,3.464977E7,0E0,0E0,0E0,0E0,0E0,0E0,0E0],"parents":[2147483647,0,0,1,1,2,2,3,3,4,4,5,5],"right_children":[2,4,6,8,10,12,-1,-1,-1,-1,-1,-1,-1],"split_conditions":[3.5E0,4.95E1,5.9E1,2.5E0,1.5E0,4.05E1,1.0777631E3,-2.778383E0,-1.165718E2,-8.108432E0,1.6898271E2,2.4676749E2,-1.7367976E2],"split_indices":[3,0,0,3,3,0,0,0,0,0,0,0,0],"split_type":[0,0,0,0,0,0,0,0,0,0,0,0,0],"sum_hessian":[1.003E3,9.71E2,3.2E1,6.9E2,2.81E2,3.1E1,1E0,6.16E2,7.4E1,2.03E2,7.8E1,1.9E1,1.2E1],"tree_param":{"num_deleted":"0","num_feature":"6","num_nodes":"13","size_leaf_vector":"0"}},{"base_weights":[2.5376463E1,9.6269295E1,-1.7576381E2,-4.0533802E1,4.1341815E2,1.8583542E2,-5.070466E2,-1.2609035E2,9.3618335E2,3.7454004E3,3.358121E2,-5.4173517E2,1.0481895E3,-7.5551776E2,1.0758542E3],"categories":[],"categories_nodes":[],"categories_segments":[],"categories_sizes":[],"default_left":[1,1,1,1,1,1,1,0,0,0,0,0,0,0,0],"id":30,"left_children":[1,3,5,7,9,11,13,-1,-1,-1,-1,-1,-1,-1,-1],"loss_changes":[1.4333363E7,3.2253256E7,3.1479624E7,4.3571612E7,5.6664612E7,7.962319E7,5.469564E7,0E0,0E0,0E0,0E0,0E0,0E0,0E0,0E0],"parents":[2147483647,0,0,1,1,2,2,3,3,4,4,5,5,6,6],"right_children":[2,4,6,8,10,12,14,-1,-1,-1,-1,-1,-1,-1,-1],"split_conditions":[2.5E0,3.37725E1,2.9849998E1,5.95E1,3.38975E1,2.675E1,5.85E1,-2.521807E1,1.8723668E2,7.490801E2,6.716242E1,-1.0834704E2,2.096379E2,-1.5110356E2,2.1517085E2],"split_indices":[5,2,2,0,2,2,0,0,0,0,0,0,0,0,0],"split_type":[0,0,0,0,0,0,0,0,0,0,0,0,0,0,0],"sum_hessian":[1.003E3,7.42E2,2.61E2,5.19E2,2.23E2,1.25E2,1.36E2,4.78E2,4.1E1,4E0,2.19E2,6.8E1,5.7E1,1.18E2,1.8E1],"tree_param":{"num_deleted":"0","num_feature":"6","num_nodes":"15","size_leaf_vector":"0"}},{"base_weights":[2.1440283E1,7.7690005E-1,6.2942114E2,-6.1268715E1,2.3759073E2,1.6098477E3,-5.128976E2,9.213141E0,-5.8804755E2,1.7791353E2,3.1471338E3,-6.1337805E2,3.0803894E3,-9.871562E2,8.4755615E1],"categories":[],"categories_nodes":[],"categories_segments":[],"categories_sizes":[],"default_left":[1,1,1,1,1,1,1,0,0,0,0,0,0,0,0],"id":31,"left_children":[1,3,5,7,9,11,13,-1,-1,-1,-1,-1,-1,-1,-1],"loss_changes":[1.2612704E7,1.4296406E7,3.778435E7,2.8631378E7,3.4514024E7,6.0737676E7,4.6187415E6,0E0,0E0,0E0,0E0,0E0,0E0,0E0,0E0],"parents":[2147483647,0,0,1,1,2,2,3,3,4,4,5,5,6,6],"right_children":[2,4,6,8,10,12,14,-1,-1,-1,-1,-1,-1,-1,-1],"split_conditions":[3.5E0,5E-1,4.5E0,3.82825E1,4.6475E1,2.917E1,3.6E1,1.8426284E0,-1.1760951E2,3.5582706E1,6.2942676E2,-1.2267561E2,6.160779E2,-1.9743124E2,1.6951124E1],"split_indices":[3,4,3,2,2,2,0,0,0,0,0,0,0,0,0],"split_type":[0,0,0,0,0,0,0,0,0,0,0,0,0,0,0],"sum_hessian":[1.003E3,9.71E2,3.2E1,7.7E2,2.01E2,1.7E1,1.5E1,6.8E2,9E1,1.98E2,3E0,7E0,1E1,8E0,7E0],"tree_param":{"num_deleted":"0","num_feature":"6","num_nodes":"15","size_leaf_vector":"0"}},{"base_weights":[1.8011019E1,-4.3531307E1,2.2298605E2,5.9243217E1,-2.6004974E2,1.0292702E4,9.0672424E1,-6.727838E1,7.7438135E2,-5.661881E2,3.165089E2,9.304905E2,-2.7502905E2],"categories":[],"categories_nodes":[],"categories_segments":[],"categories_sizes":[],"default_left":[1,1,1,1,1,0,1,0,0,0,0,0,0],"id":32,"left_children":[1,3,5,7,9,-1,11,-1,-1,-1,-1,-1,-1],"loss_changes":[1.2674806E7,1.7216652E7,3.081744E8,4.7554316E7,4.412938E7,0E0,7.089413E7,0E0,0E0,0E0,0E0,0E0,0E0],"parents":[2147483647,0,0,1,1,2,2,3,3,4,4,6,6],"right_children":[2,4,6,8,10,-1,12,-1,-1,-1,-1,-1,-1],"split_conditions":[3.5305E1,3.0685001E1,3.5355003E1,2.9595001E1,1.5E0,2.0585405E3,1.5E0,-1.3455676E1,1.5487627E2,-1.13237625E2,6.3301785E1,1.860981E2,-5.500581E1],"split_indices":[2,2,2,2,3,0,5,0,0,0,0,0,0],"split_type":[0,0,0,0,0,0,0,0,0,0,0,0,0],"sum_hessian":[1.003E3,7.72E2,2.31E2,5.24E2,2.48E2,2E0,2.29E2,4.46E2,7.8E1,1.62E2,8.6E1,6.9E1,1.6E2],"tree_param":{"num_deleted":"0","num_feature":"6","num_nodes":"13","size_leaf_vector":"0"}},{"base_weights":[1.66808E1,-2.1772981E2,6.5743095E1,-5.418254E2,1.05157074E2,9.1566876E2,2.0473951E1,-7.5336884E2,8.4310187E2,2.1251436E3,-2.7330914E2,3.023784E3,-1.3364363E3,-9.597527E2,6.991371E1],"categories":[],"categories_nodes":[],"categories_segments":[],"categories_sizes":[],"default_left":[1,1,1,1,1,1,1,0,0,0,0,0,0,0,0],"id":33,"left_children":[1,3,5,7,9,11,13,-1,-1,-1,-1,-1,-1,-1,-1],"loss_changes":[1.1561039E7,1.826542E7,3.1954314E7,2.6123754E7,6.785653E7,2.0344437E8,3.8352212E7,0E0,0E0,0E0,0E0,0E0,0E0,0E0,0E0],"parents":[2147483647,0,0,1,1,2,2,3,3,4,4,5,5,6,6],"right_children":[2,4,6,8,10,12,14,-1,-1,-1,-1,-1,-1,-1,-1],"split_conditions":[2.25E1,2.991E1,2.45E1,1.5E0,3.1060001E1,2.89E1,2.65E1,-1.5067377E2,1.6862038E2,4.2502872E2,-5.466183E1,6.047568E2,-2.6728726E2,-1.9195055E2,1.3982742E1],"split_indices":[0,2,0,3,2,2,0,0,0,0,0,0,0,0,0],"split_type":[0,0,0,0,0,0,0,0,0,0,0,0,0,0,0],"sum_hessian":[1.003E3,1.73E2,8.3E2,8.6E1,8.7E1,4.1E1,7.89E2,7.5E1,1.1E1,1.3E1,7.4E1,2.1E1,2E1,3.7E1,7.52E2],"tree_param":{"num_deleted":"0","num_feature":"6","num_nodes":"15","size_leaf_vector":"0"}},{"base_weights":[1.389025E1,-6.984915E1,1.6388477E2,3.580101E1,-5.276713E2,1.3119519E3,9.962406E1,7.095272E0,2.159012E3,-7.810458E2,9.226953E1,-7.5430725E2,4.2473467E3,-4.544215E2,2.6232568E2],"categories":[],"categories_nodes":[],"categories_segments":[],"categories_sizes":[],"default_left":[1,1,1,1,1,1,1,0,0,0,0,0,0,0,0],"id":34,"left_children":[1,3,5,7,9,11,13,-1,-1,-1,-1,-1,-1,-1,-1],"loss_changes":[1.262214E7,3.121689E7,2.6428514E7,3.1982558E7,1.9078404E7,1.1844426E8,3.094849E7,0E0,0E0,0E0,0E0,0E0,0E0,0E0,0E0],"parents":[2147483647,0,0,1,1,2,2,3,3,4,4,5,5,6,6],"right_children":[2,4,6,8,10,12,14,-1,-1,-1,-1,-1,-1,-1,-1],"split_conditions":[3.27775E1,3.0685001E1,3.3105E1,3.0545E1,5.25E1,5E-1,2.75E1,1.4190544E0,4.318024E2,-1.5620915E2,1.8453907E1,-1.5086145E2,8.4946936E2,-9.08843E1,5.2465137E1],"split_indices":[2,2,2,2,0,1,0,0,0,0,0,0,0,0,0],"split_type":[0,0,0,0,0,0,0,0,0,0,0,0,0,0,0],"sum_hessian":[1.003E3,6.44E2,3.59E2,5.24E2,1.2E2,1.8E1,3.41E2,5.18E2,6E0,8.5E1,3.5E1,1.1E1,7E0,7.7E1,2.64E2],"tree_param":{"num_deleted":"0","num_feature":"6","num_nodes":"15","size_leaf_vector":"0"}},{"base_weights":[1.2064048E1,-1.0376805E3,2.1537579E1,-2.16132E1,-1.3248978E3,6.544508E3,8.404435E0,-1.04398926E2,7.1979126E1,-4.4810342E2,-1.5859949E3,-4.4496017E2,3.591602E1],"categories":[],"categories_nodes":[],"categories_segments":[],"categories_sizes":[],"default_left":[1,1,1,1,1,0,1,0,0,0,0,0,0],"id":35,"left_children":[1,3,5,7,9,-1,11,-1,-1,-1,-1,-1,-1],"loss_changes":[1.0006917E7,2.597853E6,8.526944E7,3.0758871E4,8.91809E5,0E0,1.2426397E7,0E0,0E0,0E0,0E0,0E0,0E0],"parents":[2147483647,0,0,1,1,2,2,3,3,4,4,6,6],"right_children":[2,4,6,8,10,-1,12,-1,-1,-1,-1,-1,-1],"split_conditions":[1.7717499E1,5E-1,1.77825E1,1.71075E1,1.7052502E1,1.3089016E3,2.17075E1,-2.0879786E1,1.4395825E1,-8.962069E1,-3.1719897E2,-8.8992035E1,7.183204E0],"split_indices":[2,1,2,2,2,0,2,0,0,0,0,0,0],"split_type":[0,0,0,0,0,0,0,0,0,0,0,0,0],"sum_hessian":[1.003E3,8E0,9.95E2,2E0,6E0,1E0,9.94E2,1E0,1E0,2E0,4E0,5.6E1,9.38E2],"tree_param":{"num_deleted":"0","num_feature":"6","num_nodes":"13","size_leaf_vector":"0"}},{"base_weights":[1.0461611E1,7.1243494E2,-3.0758681E0,2.4809434E0,6.745803E3,-6.254151E2,2.8740274E1,-8.7468695E2,1.2082766E3,-3.3074506E2,-1.5865101E3,3.3009253E2,-2.4919825E1],"categories":[],"categories_nodes":[],"categories_segments":[],"categories_sizes":[],"default_left":[1,1,1,1,0,1,1,0,0,0,0,0,0],"id":36,"left_children":[1,3,5,7,-1,9,11,-1,-1,-1,-1,-1,-1],"loss_changes":[9.543153E6,8.136813E7,1.9541204E7,2.0095198E7,0E0,1.3069154E7,1.5192411E7,0E0,0E0,0E0,0E0,0E0,0E0],"parents":[2147483647,0,0,1,1,2,2,3,3,5,5,6,6],"right_children":[2,4,6,8,-1,10,12,-1,-1,-1,-1,-1,-1],"split_conditions":[1.8810001E1,1.8657501E1,2.17075E1,2.95E1,1.3491606E3,5E-1,2.53825E1,-1.749374E2,2.4165532E2,-6.614901E1,-3.1730203E2,6.601851E1,-4.983965E0],"split_indices":[2,2,2,0,0,4,2,0,0,0,0,0,0],"split_type":[0,0,0,0,0,0,0,0,0,0,0,0,0],"sum_hessian":[1.003E3,1.8E1,9.85E2,1.7E1,1E0,4.7E1,9.38E2,1E1,7E0,3.7E1,1E1,1.41E2,7.97E2],"tree_param":{"num_deleted":"0","num_feature":"6","num_nodes":"13","size_leaf_vector":"0"}},{"base_weights":[9.458604E0,-4.030335E1,2.0480107E2,1.5352726E1,-4.4918756E2,1.26726036E2,2.1017988E3,-4.464256E1,2.075423E3,2.754595E2,-1.1213721E3,2.8812239E3,8.369927E1,1.0804744E3,4.625535E3],"categories":[],"categories_nodes":[],"categories_segments":[],"categories_sizes":[],"default_left":[1,1,1,1,1,1,1,0,0,0,0,0,0,0,0],"id":37,"left_children":[1,3,5,7,9,11,13,-1,-1,-1,-1,-1,-1,-1,-1],"loss_changes":[9.767759E6,1.8235166E7,2.9947718E7,8.7350376E7,4.707016E7,2.310672E7,1.5622656E7,0E0,0E0,0E0,0E0,0E0,0E0,0E0,0E0],"parents":[2147483647,0,0,1,1,2,2,3,3,4,4,5,5,6,6],"right_children":[2,4,6,8,10,12,14,-1,-1,-1,-1,-1,-1,-1,-1],"split_conditions":[5E-1,3.82825E1,4.2825E1,3.74775E1,4.15E1,1.786E1,5.25E1,-8.928512E0,4.1508463E2,5.50919E1,-2.2427441E2,5.762448E2,1.6739855E1,2.1609488E2,9.2510706E2],"split_indices":[4,2,2,2,0,2,0,0,0,0,0,0,0,0,0],"split_type":[0,0,0,0,0,0,0,0,0,0,0,0,0,0,0],"sum_hessian":[1.003E3,8E2,2.03E2,7.05E2,9.5E1,1.96E2,7E0,6.86E2,1.9E1,4.6E1,4.9E1,2E0,1.94E2,6E0,1E0],"tree_param":{"num_deleted":"0","num_feature":"6","num_nodes":"15","size_leaf_vector":"0"}},{"base_weights":[9.530408E0,-5.0566936E1,1.507274E2,-1.0419402E1,-1.2405756E3,3.1945686E3,9.880195E1,-3.7513927E1,3.671101E3,-8.0769946E2,-1.4611603E3,7.1452188E3,-1.820938E3,-3.4232196E2,4.2776627E2],"categories":[],"categories_nodes":[],"categories_segments":[],"categories_sizes":[],"default_left":[1,1,1,1,1,1,1,0,0,0,0,0,0,0,0],"id":38,"left_children":[1,3,5,7,9,11,13,-1,-1,-1,-1,-1,-1,-1,-1],"loss_changes":[8.527128E6,3.366909E7,4.710022E7,6.826631E7,1.016E6,1.1208356E8,4.3100188E7,0E0,0E0,0E0,0E0,0E0,0E0,0E0,0E0],"parents":[2147483647,0,0,1,1,2,2,3,3,4,4,5,5,6,6],"right_children":[2,4,6,8,10,12,14,-1,-1,-1,-1,-1,-1,-1,-1],"split_conditions":[3.37725E1,3.33725E1,3.38975E1,3.33375E1,5E-1,3E1,5E-1,-7.5027857E0,7.342202E2,-1.615399E2,-2.9223206E2,1.4290438E3,-3.641876E2,-6.846439E1,8.555325E1],"split_indices":[2,2,2,2,3,0,3,0,0,0,0,0,0,0,0],"split_type":[0,0,0,0,0,0,0,0,0,0,0,0,0,0,0],"sum_hessian":[1.003E3,7.04E2,2.99E2,6.82E2,2.2E1,4E0,2.95E2,6.78E2,4E0,9E0,1.3E1,2E0,2E0,1.26E2,1.69E2],"tree_param":{"num_deleted":"0","num_feature":"6","num_nodes":"15","size_leaf_vector":"0"}},{"base_weights":[8.973775E0,-2.7163715E0,6.8784973E2,1.1924056E1,-6.461062E2,3.5494302E3,-1.7887682E2,-6.495161E1,1.5196886E2,-1.0431981E3,9.126457E2,2.2394206E2,6.7629473E3,-7.281321E2,1.3762944E3],"categories":[],"categories_nodes":[],"categories_segments":[],"categories_sizes":[],"default_left":[1,1,1,1,1,1,1,0,0,0,0,0,0,0,0],"id":39,"left_children":[1,3,5,7,9,11,13,-1,-1,-1,-1,-1,-1,-1,-1],"loss_changes":[7.9697715E6,9.314173E6,4.2798444E7,1.0420628E7,1.4569358E7,4.123154E7,1.2960729E7,0E0,0E0,0E0,0E0,0E0,0E0,0E0,0E0],"parents":[2147483647,0,0,1,1,2,2,3,3,4,4,5,5,6,6],"right_children":[2,4,6,8,10,12,14,-1,-1,-1,-1,-1,-1,-1,-1],"split_conditions":[6.35E1,6.25E1,2.5150002E1,3.27775E1,5E-1,2.423E1,5E-1,-1.2990321E1,3.0393772E1,-2.0863963E2,1.8252914E2,4.4788414E1,1.3525895E3,-1.4562642E2,2.7525888E2],"split_indices":[0,0,2,2,4,2,4,0,0,0,0,0,0,0,0],"split_type":[0,0,0,0,0,0,0,0,0,0,0,0,0,0,0],"sum_hessian":[1.003E3,9.87E2,1.6E1,9.66E2,2.1E1,3E0,1.3E1,6.24E2,3.42E2,1.7E1,4E0,2E0,1E0,1E1,3E0],"tree_param":{"num_deleted":"0","num_feature":"6","num_nodes":"15","size_leaf_vector":"0"}},{"base_weights":[8.691266E0,-7.300756E0,4.7946564E2,6.476636E2,-1.9637989E1,2.2099147E2,4.3753193E3,-3.0230778E1,6.0859336E3,-4.9077182E2,4.1991487E0,1.7579386E3,-2.7967126E2],"categories":[],"categories_nodes":[],"categories_segments":[],"categories_sizes":[],"default_left":[1,1,1,1,1,1,0,0,0,0,0,0,0],"id":40,"left_children":[1,3,5,7,9,11,-1,-1,-1,-1,-1,-1,-1],"loss_changes":[7.5622485E6,7.866914E6,3.2263352E7,6.654229E7,1.0727171E7,2.5115392E7,0E0,0E0,0E0,0E0,0E0,0E0,0E0],"parents":[2147483647,0,0,1,1,2,2,3,3,4,4,5,5],"right_children":[2,4,6,8,10,12,-1,-1,-1,-1,-1,-1,-1],"split_conditions":[3.5E0,1.8810001E1,5.9E1,1.8657501E1,2.16125E1,5E-1,8.750639E2,-6.0461555E0,1.2171868E3,-9.8154366E1,8.3982974E-1,3.5158774E2,-5.5934254E1],"split_indices":[3,2,0,2,2,5,0,0,0,0,0,0,0],"split_type":[0,0,0,0,0,0,0,0,0,0,0,0,0],"sum_hessian":[1.003E3,9.71E2,3.2E1,1.7E1,9.54E2,3.1E1,1E0,1.6E1,1E0,4.5E1,9.09E2,7E0,2.4E1],"tree_param":{"num_deleted":"0","num_feature":"6","num_nodes":"13","size_leaf_vector":"0"}},{"base_weights":[9.22844E0,-1.1043688E3,1.59074745E1,-2.84591E2,-1.8292828E3,2.0823674E3,5.507266E0,1.124353E1,-3.8695035E2,-1.442287E2,5.494376E3,-5.5041866E0,6.393134E2],"categories":[],"categories_nodes":[],"categories_segments":[],"categories_sizes":[],"default_left":[1,1,1,1,0,1,1,0,0,0,0,0,0],"id":41,"left_children":[1,3,5,7,-1,9,11,-1,-1,-1,-1,-1,-1],"loss_changes":[7.4850715E6,3.045013E6,2.1458654E7,1.2547644E5,0E0,3.877827E7,6.9477495E6,0E0,0E0,0E0,0E0,0E0,0E0],"parents":[2147483647,0,0,1,1,2,2,3,3,5,5,6,6],"right_children":[2,4,6,8,-1,10,12,-1,-1,-1,-1,-1,-1],"split_conditions":[1.73925E1,1.7052502E1,1.77825E1,5E-1,-3.6585657E2,2.9E1,6.35E1,2.248706E0,-7.739007E1,-2.884574E1,1.0988752E3,-1.1008373E0,1.27862686E2],"split_indices":[2,2,2,1,0,0,0,0,0,0,0,0,0],"split_type":[0,0,0,0,0,0,0,0,0,0,0,0,0],"sum_hessian":[1.003E3,5E0,9.98E2,3E0,2E0,4E0,9.94E2,1E0,2E0,3E0,1E0,9.78E2,1.6E1],"tree_param":{"num_deleted":"0","num_feature":"6","num_nodes":"13","size_leaf_vector":"0"}},{"base_weights":[8.135656E0,3.8763374E1,-2.2665897E2,-1.5602079E1,1.7750087E3,-2.3734587E3,-4.5660282E1,2.1768723E1,-1.32293E3,7.3795127E3,-1.7768356E2,-2.60983E3,-2.4124414E2,2.6757217E3,-1.4889713E2],"categories":[],"categories_nodes":[],"categories_segments":[],"categories_sizes":[],"default_left":[1,1,1,1,1,1,1,0,0,0,0,0,0,0,0],"id":42,"left_children":[1,3,5,7,9,11,13,-1,-1,-1,-1,-1,-1,-1,-1],"loss_changes":[7.2287745E6,8.3941976E7,4.4965508E7,4.219143E7,2.9679574E8,3.906344E6,3.074067E7,0E0,0E0,0E0,0E0,0E0,0E0,0E0,0E0],"parents":[2147483647,0,0,1,1,2,2,3,3,4,4,5,5,6,6],"right_children":[2,4,6,8,10,12,14,-1,-1,-1,-1,-1,-1,-1,-1],"split_conditions":[3.82825E1,3.74775E1,3.87475E1,3.69075E1,1.5E0,2.5E0,3.8885002E1,4.3537445E0,-2.6458603E2,1.4759026E3,-3.5536713E1,-5.21966E2,-4.824883E1,5.3514435E2,-2.9779425E1],"split_indices":[2,2,2,2,5,3,2,0,0,0,0,0,0,0,0],"split_type":[0,0,0,0,0,0,0,0,0,0,0,0,0,0,0],"sum_hessian":[1.003E3,8.88E2,1.15E2,8.62E2,2.6E1,8E0,1.07E2,8.39E2,2.3E1,6E0,2E1,7E0,1E0,3E0,1.04E2],"tree_param":{"num_deleted":"0","num_feature":"6","num_nodes":"15","size_leaf_vector":"0"}},{"base_weights":[7.619408E0,-3.206538E1,1.6340321E2,1.9477211E2,-1.3958745E2,1.0545023E2,2.0582766E3,-6.2185566E1,1.6392827E3,4.684813E2,-2.947857E2,2.2675117E3,7.199016E1,7.911164E2,4.197039E3],"categories":[],"categories_nodes":[],"categories_segments":[],"categories_sizes":[],"default_left":[1,1,1,1,1,1,1,0,0,0,0,0,0,0,0],"id":43,"left_children":[1,3,5,7,9,11,13,-1,-1,-1,-1,-1,-1,-1,-1],"loss_changes":[6.212216E6,1.9563606E7,2.2184924E7,9.586589E7,5.147604E7,1.4232966E7,1.2940578E7,0E0,0E0,0E0,0E0,0E0,0E0,0E0,0E0],"parents":[2147483647,0,0,1,1,2,2,3,3,4,4,5,5,6,6],"right_children":[2,4,6,8,10,12,14,-1,-1,-1,-1,-1,-1,-1,-1],"split_conditions":[5E-1,2.76725E1,4.4385002E1,2.676E1,5E-1,1.786E1,4.55E1,-1.2437114E1,3.2785654E2,9.369626E1,-5.895714E1,4.5350235E2,1.4398032E1,1.5822328E2,8.3940784E2],"split_indices":[4,2,2,2,5,2,0,0,0,0,0,0,0,0,0],"split_type":[0,0,0,0,0,0,0,0,0,0,0,0,0,0,0],"sum_hessian":[1.003E3,8E2,2.03E2,2.57E2,5.43E2,1.98E2,5E0,2.19E2,3.8E1,1.1E2,4.33E2,2E0,1.96E2,4E0,1E0],"tree_param":{"num_deleted":"0","num_feature":"6","num_nodes":"15","size_leaf_vector":"0"}},{"base_weights":[7.903885E0,-1.027915E3,1.4117107E1,-2.4039563E2,-1.7353025E3,1.1212527E3,-1.6171883E0,1.4160767E1,-3.2996802E2,3.641287E2,5.4819326E3,-3.9160025E2,1.7448526E1],"categories":[],"categories_nodes":[],"categories_segments":[],"categories_sizes":[],"default_left":[1,1,1,1,0,1,1,0,0,0,0,0,0],"id":44,"left_children":[1,3,5,7,-1,9,11,-1,-1,-1,-1,-1,-1],"loss_changes":[6.4760275E6,2.9253285E6,1.7404392E7,9.5877516E4,0E0,4.4225932E7,7.3380445E6,0E0,0E0,0E0,0E0,0E0,0E0],"parents":[2147483647,0,0,1,1,2,2,3,3,5,5,6,6],"right_children":[2,4,6,8,-1,10,12,-1,-1,-1,-1,-1,-1],"split_conditions":[1.73925E1,1.7052502E1,1.8810001E1,5E-1,-3.4706052E2,1.8657501E1,2.16125E1,2.8321533E0,-6.599361E1,7.282574E1,1.0963866E3,-7.832005E1,3.4897053E0],"split_indices":[2,2,2,1,0,2,2,0,0,0,0,0,0],"split_type":[0,0,0,0,0,0,0,0,0,0,0,0,0],"sum_hessian":[1.003E3,5E0,9.98E2,3E0,2E0,1.3E1,9.85E2,1E0,2E0,1.2E1,1E0,4.5E1,9.4E2],"tree_param":{"num_deleted":"0","num_feature":"6","num_nodes":"13","size_leaf_vector":"0"}},{"base_weights":[7.004782E0,-7.5062017E0,4.3420694E2,1.6840582E2,-5.3297405E1,1.3342318E3,-6.054589E2,9.806825E1,3.608014E3,-1.1140519E3,-2.9184017E0,2.2636067E3,-9.0178564E2,-1.1662736E3,2.2134958E3],"categories":[],"categories_nodes":[],"categories_segments":[],"categories_sizes":[],"default_left":[1,1,1,1,1,1,1,0,0,0,0,0,0,0,0],"id":45,"left_children":[1,3,5,7,9,11,13,-1,-1,-1,-1,-1,-1,-1,-1],"loss_changes":[6.2271795E6,7.8386525E6,3.1686752E7,4.827483E7,4.1252244E7,3.944706E7,2.787612E7,0E0,0E0,0E0,0E0,0E0,0E0,0E0,0E0],"parents":[2147483647,0,0,1,1,2,2,3,3,4,4,5,5,6,6],"right_children":[2,4,6,8,10,12,14,-1,-1,-1,-1,-1,-1,-1,-1],"split_conditions":[3.5E0,2.53825E1,5E-1,2.53325E1,2.605E1,3.3515E1,3.6684998E1,1.9613651E1,7.216028E2,-2.2281038E2,-5.8368033E-1,4.5272134E2,-1.8035713E2,-2.3325471E2,4.426992E2],"split_indices":[3,2,1,2,2,2,2,0,0,0,0,0,0,0,0],"split_type":[0,0,0,0,0,0,0,0,0,0,0,0,0,0,0],"sum_hessian":[1.003E3,9.71E2,3.2E1,2E2,7.71E2,1.7E1,1.5E1,1.97E2,3E0,3.4E1,7.37E2,1.2E1,5E0,1.3E1,2E0],"tree_param":{"num_deleted":"0","num_feature":"6","num_nodes":"15","size_leaf_vector":"0"}},{"base_weights":[6.5994024E0,-3.9573353E1,1.3617293E2,-1.6470552E1,-7.938663E2,3.915437E3,9.237917E1,-4.2856518E1,1.1471904E3,-1.0710626E3,-4.6864956E1,-4.7132507E2,6.3444805E3,6.9089966E2,-1.5393015E1],"categories":[],"categories_nodes":[],"categories_segments":[],"categories_sizes":[],"default_left":[1,1,1,1,1,1,1,0,0,0,0,0,0,0,0],"id":46,"left_children":[1,3,5,7,9,11,13,-1,-1,-1,-1,-1,-1,-1,-1],"loss_changes":[6.0120865E6,1.2899797E7,4.3332456E7,2.2156274E7,4.505259E6,3.495722E7,1.6910644E7,0E0,0E0,0E0,0E0,0E0,0E0,0E0,0E0],"parents":[2147483647,0,0,1,1,2,2,3,3,4,4,5,5,6,6],"right_children":[2,4,6,8,10,12,14,-1,-1,-1,-1,-1,-1,-1,-1],"split_conditions":[3.44575E1,3.41025E1,3.44925E1,3.37725E1,5E-1,3.85E1,3.5565E1,-8.571303E0,2.294381E2,-2.1421252E2,-9.372992E0,-9.4265015E1,1.2688961E3,1.3817993E2,-3.078603E0],"split_indices":[2,2,2,2,4,0,2,0,0,0,0,0,0,0,0],"split_type":[0,0,0,0,0,0,0,0,0,0,0,0,0,0,0],"sum_hessian":[1.003E3,7.4E2,2.63E2,7.19E2,2.1E1,2E0,2.61E2,7.04E2,1.5E1,1.5E1,6E0,1E0,1E0,3.9E1,2.22E2],"tree_param":{"num_deleted":"0","num_feature":"6","num_nodes":"15","size_leaf_vector":"0"}},{"base_weights":[6.581317E0,-3.383482E1,1.4121535E2,-1.0185354E1,-1.0849414E3,8.816415E3,2.7446583E1,-3.023604E1,1.8708396E3,3.0542773E2,-1.4046938E3,5.921194E2,-2.182338E2],"categories":[],"categories_nodes":[],"categories_segments":[],"categories_sizes":[],"default_left":[1,1,1,1,1,0,1,0,0,0,0,0,0],"id":47,"left_children":[1,3,5,7,9,-1,11,-1,-1,-1,-1,-1,-1],"loss_changes":[5.467931E6,1.9204268E7,2.2873429E8,2.860746E7,7.98679E6,0E0,3.2036896E7,0E0,0E0,0E0,0E0,0E0,0E0],"parents":[2147483647,0,0,1,1,2,2,3,3,4,4,6,6],"right_children":[2,4,6,8,10,-1,12,-1,-1,-1,-1,-1,-1],"split_conditions":[3.5305E1,3.4835E1,3.5355003E1,3.4785E1,5E-1,1.7632831E3,1.5E0,-6.0472083E0,3.7416794E2,6.108555E1,-2.8093878E2,1.1842388E2,-4.364676E1],"split_indices":[2,2,2,2,5,0,5,0,0,0,0,0,0],"split_type":[0,0,0,0,0,0,0,0,0,0,0,0,0],"sum_hessian":[1.003E3,7.72E2,2.31E2,7.56E2,1.6E1,2E0,2.29E2,7.49E2,7E0,3E0,1.3E1,6.9E1,1.6E2],"tree_param":{"num_deleted":"0","num_feature":"6","num_nodes":"13","size_leaf_vector":"0"}},{"base_weights":[7.2433815E0,-9.9324E0,3.283895E2,2.233561E1,-9.1118E2,9.433758E3,-4.239302E1,1.5591888E1,3.116651E3,-1.7397429E3,-2.9018267E1,-4.2391238E2,1.0760784E3],"categories":[],"categories_nodes":[],"categories_segments":[],"categories_sizes":[],"default_left":[1,1,1,1,1,0,1,0,0,0,0,0,0],"id":48,"left_children":[1,3,5,7,9,-1,11,-1,-1,-1,-1,-1,-1],"loss_changes":[5.541261E6,2.776407E7,1.725816E8,1.9190962E7,2.407009E7,0E0,2.179209E7,0E0,0E0,0E0,0E0,0E0,0E0],"parents":[2147483647,0,0,1,1,2,2,3,3,4,4,6,6],"right_children":[2,4,6,8,10,-1,12,-1,-1,-1,-1,-1,-1],"split_conditions":[4.1372498E1,3.9754997E1,4.1445E1,3.9655E1,1.5E0,1.8867516E3,5E-1,3.1183777E0,6.233302E2,-3.4794858E2,-5.8036532E0,-8.478248E1,2.1521568E2],"split_indices":[2,2,2,2,5,0,4,0,0,0,0,0,0],"split_type":[0,0,0,0,0,0,0,0,0,0,0,0,0],"sum_hessian":[1.003E3,9.53E2,5E1,9.21E2,3.2E1,1E0,4.9E1,9.2E2,1E0,1.6E1,1.6E1,3.7E1,1.2E1],"tree_param":{"num_deleted":"0","num_feature":"6","num_nodes":"13","size_leaf_vector":"0"}},{"base_weights":[8.075603E0,-3.9090923E1,1.2547256E2,2.4456718E2,-1.0232793E2,1.3099414E3,4.165633E1,-6.3291492E1,2.3127542E3,-8.9472546E2,2.9941362E1,4.431379E3,-1.21384766E2,-1.0650719E3,1.3445488E2],"categories":[],"categories_nodes":[],"categories_segments":[],"categories_sizes":[],"default_left":[1,1,1,1,1,1,1,0,0,0,0,0,0,0,0],"id":49,"left_children":[1,3,5,7,9,11,13,-1,-1,-1,-1,-1,-1,-1,-1],"loss_changes":[5.5642605E6,1.2886348E7,2.8537414E7,8.35553E7,6.1550176E7,8.542602E7,2.7872952E7,0E0,0E0,0E0,0E0,0E0,0E0,0E0,0E0],"parents":[2147483647,0,0,1,1,2,2,3,3,4,4,5,5,6,6],"right_children":[2,4,6,8,10,12,14,-1,-1,-1,-1,-1,-1,-1,-1],"split_conditions":[4.95E1,2.4465E1,5.05E1,2.4095001E1,2.695E1,2.7407501E1,5.15E1,-1.26582985E1,4.6255084E2,-1.789451E2,5.9882727E0,8.862758E2,-2.4276953E1,-2.1301439E2,2.6890976E1],"split_indices":[0,2,0,2,2,2,0,0,0,0,0,0,0,0,0],"split_type":[0,0,0,0,0,0,0,0,0,0,0,0,0,0,0],"sum_hessian":[1.003E3,7.16E2,2.87E2,1.3E2,5.86E2,1.8E1,2.69E2,1.14E2,1.6E1,8.3E1,5.03E2,5E0,1.3E1,2E1,2.49E2],"tree_param":{"num_deleted":"0","num_feature":"6","num_nodes":"15","size_leaf_vector":"0"}}]},"name":"gbtree"},"learner_model_param":{"base_score":"5E-1","boost_from_average":"1","num_class":"0","num_feature":"6","num_target":"1"},"objective":{"name":"reg:squarederror","reg_loss_param":{"scale_pos_weight":"1"}}},"version":[1,7,4]}